<?xml version="1.0"?>
<opencv_storage>
<cascade>
  <stageType>BOOST</stageType>
  <featureType>HAAR</featureType>
  <height>60</height>
  <width>60</width>
  <stageParams>
    <boostType>GAB</boostType>
    <minHitRate>9.9500000476837158e-01</minHitRate>
    <maxFalseAlarm>3.0000001192092896e-01</maxFalseAlarm>
    <weightTrimRate>9.4999999999999996e-01</weightTrimRate>
    <maxDepth>1</maxDepth>
    <maxWeakCount>100</maxWeakCount></stageParams>
  <featureParams>
    <maxCatCount>0</maxCatCount>
    <featSize>1</featSize>
    <mode>ALL</mode></featureParams>
  <stageNum>4</stageNum>
  <stages>
    <!-- stage 0 -->
    <_>
      <maxWeakCount>3</maxWeakCount>
      <stageThreshold>-1.1234902143478394e+00</stageThreshold>
      <weakClassifiers>
        <_>
          <internalNodes>
            0 -1 2 -2.0287944935262203e-03</internalNodes>
          <leafValues>
            8.3706718683242798e-01 -9.0287411212921143e-01</leafValues></_>
        <_>
          <internalNodes>
            0 -1 10 -5.9227114543318748e-03</internalNodes>
          <leafValues>
            8.3334583044052124e-01 -8.0324482917785645e-01</leafValues></_>
        <_>
          <internalNodes>
            0 -1 15 -2.7289512217976153e-04</internalNodes>
          <leafValues>
            5.8262872695922852e-01 -9.1097420454025269e-01</leafValues></_></weakClassifiers></_>
    <!-- stage 1 -->
    <_>
      <maxWeakCount>5</maxWeakCount>
      <stageThreshold>-1.5211890935897827e+00</stageThreshold>
      <weakClassifiers>
        <_>
          <internalNodes>
            0 -1 0 9.4056390225887299e-03</internalNodes>
          <leafValues>
            -8.5880076885223389e-01 8.3261799812316895e-01</leafValues></_>
        <_>
          <internalNodes>
            0 -1 5 -1.6117962077260017e-03</internalNodes>
          <leafValues>
            7.1916007995605469e-01 -7.5835722684860229e-01</leafValues></_>
        <_>
          <internalNodes>
            0 -1 1 7.9232463613152504e-03</internalNodes>
          <leafValues>
            -7.6503539085388184e-01 6.0265862941741943e-01</leafValues></_>
        <_>
          <internalNodes>
            0 -1 12 3.2914325129240751e-04</internalNodes>
          <leafValues>
            3.8276711106300354e-01 -9.9742382764816284e-01</leafValues></_>
        <_>
          <internalNodes>
            0 -1 13 -2.8183835638628807e-06</internalNodes>
          <leafValues>
            -1. 4.7823727130889893e-01</leafValues></_></weakClassifiers></_>
    <!-- stage 2 -->
    <_>
      <maxWeakCount>4</maxWeakCount>
      <stageThreshold>-6.4725518226623535e-01</stageThreshold>
      <weakClassifiers>
        <_>
          <internalNodes>
            0 -1 9 -1.3513600453734398e-02</internalNodes>
          <leafValues>
            8.9175260066986084e-01 -7.6079136133193970e-01</leafValues></_>
        <_>
          <internalNodes>
            0 -1 4 -5.6208572350442410e-03</internalNodes>
          <leafValues>
            -9.9473959207534790e-01 3.7405684590339661e-01</leafValues></_>
        <_>
          <internalNodes>
            0 -1 14 -7.0813233032822609e-03</internalNodes>
          <leafValues>
            6.4946371316909790e-01 -6.5217876434326172e-01</leafValues></_>
        <_>
          <internalNodes>
            0 -1 7 5.0567970902193338e-05</internalNodes>
          <leafValues>
            3.9165809750556946e-01 -9.9909365177154541e-01</leafValues></_></weakClassifiers></_>
    <!-- stage 3 -->
    <_>
      <maxWeakCount>4</maxWeakCount>
      <stageThreshold>-5.3700077533721924e-01</stageThreshold>
      <weakClassifiers>
        <_>
          <internalNodes>
            0 -1 3 4.3595332652330399e-02</internalNodes>
          <leafValues>
            -8.5489600896835327e-01 6.6569483280181885e-01</leafValues></_>
        <_>
          <internalNodes>
            0 -1 6 6.5023228526115417e-02</internalNodes>
          <leafValues>
            -6.0470831394195557e-01 7.7392679452896118e-01</leafValues></_>
        <_>
          <internalNodes>
            0 -1 11 1.4142107102088630e-04</internalNodes>
          <leafValues>
            -9.8735398054122925e-01 4.4785952568054199e-01</leafValues></_>
        <_>
          <internalNodes>
            0 -1 8 -1.8975700868395506e-06</internalNodes>
          <leafValues>
            -8.6927652359008789e-01 4.7474399209022522e-01</leafValues></_></weakClassifiers></_></stages>
  <features>
    <_>
      <rects>
        <_>
          16 27 6 23 -1.</_>
        <_>
          19 27 3 23 2.</_></rects>
      <tilted>0</tilted></_>
    <_>
      <rects>
        <_>
          18 11 26 18 -1.</_>
        <_>
          18 20 26 9 2.</_></rects>
      <tilted>0</tilted></_>
    <_>
      <rects>
        <_>
          22 52 15 2 -1.</_>
        <_>
          22 53 15 1 2.</_></rects>
      <tilted>0</tilted></_>
    <_>
      <rects>
        <_>
          23 8 18 48 -1.</_>
        <_>
          23 20 18 24 2.</_></rects>
      <tilted>0</tilted></_>
    <_>
      <rects>
        <_>
          24 11 14 42 -1.</_>
        <_>
          24 32 14 21 2.</_></rects>
      <tilted>0</tilted></_>
    <_>
      <rects>
        <_>
          24 52 11 2 -1.</_>
        <_>
          24 53 11 1 2.</_></rects>
      <tilted>0</tilted></_>
    <_>
      <rects>
        <_>
          25 12 27 21 -1.</_>
        <_>
          18 19 27 7 3.</_></rects>
      <tilted>1</tilted></_>
    <_>
      <rects>
        <_>
          26 14 10 36 -1.</_>
        <_>
          26 32 10 18 2.</_></rects>
      <tilted>0</tilted></_>
    <_>
      <rects>
        <_>
          27 13 8 36 -1.</_>
        <_>
          27 31 8 18 2.</_></rects>
      <tilted>0</tilted></_>
    <_>
      <rects>
        <_>
          28 5 4 22 -1.</_>
        <_>
          28 5 2 22 2.</_></rects>
      <tilted>1</tilted></_>
    <_>
      <rects>
        <_>
          28 6 4 20 -1.</_>
        <_>
          28 6 2 20 2.</_></rects>
      <tilted>1</tilted></_>
    <_>
      <rects>
        <_>
          30 25 12 8 -1.</_>
        <_>
          33 25 6 8 2.</_></rects>
      <tilted>0</tilted></_>
    <_>
      <rects>
        <_>
          33 22 4 14 -1.</_>
        <_>
          33 22 4 7 2.</_></rects>
      <tilted>1</tilted></_>
    <_>
      <rects>
        <_>
          33 23 3 14 -1.</_>
        <_>
          33 23 3 7 2.</_></rects>
      <tilted>1</tilted></_>
    <_>
      <rects>
        <_>
          37 4 17 6 -1.</_>
        <_>
          35 6 17 2 3.</_></rects>
      <tilted>1</tilted></_>
    <_>
      <rects>
        <_>
          43 29 1 4 -1.</_>
        <_>
          43 29 1 2 2.</_></rects>
      <tilted>1</tilted></_></features></cascade>
</opencv_storage>
